digraph Tree {
node [shape=box, fontname="helvetica"] ;
edge [fontname="helvetica"] ;
0 [label="x[0] <= 0.465\ngini = 0.364\nsamples = 11999\nvalue = [9134, 2865]"] ;
1 [label="x[2] <= 2.5\ngini = 0.477\nsamples = 3354\nvalue = [1315, 2039]"] ;
0 -> 1 [labeldistance=2.5, labelangle=45, headlabel="True"] ;
2 [label="x[1] <= 0.575\ngini = 0.217\nsamples = 1390\nvalue = [172, 1218]"] ;
1 -> 2 ;
3 [label="x[1] <= 0.445\ngini = 0.102\nsamples = 1282\nvalue = [69, 1213]"] ;
2 -> 3 ;
4 [label="gini = 0.0\nsamples = 33\nvalue = [33, 0]"] ;
3 -> 4 ;
5 [label="x[3] <= 125.5\ngini = 0.056\nsamples = 1249\nvalue = [36, 1213]"] ;
3 -> 5 ;
6 [label="gini = 0.0\nsamples = 11\nvalue = [11, 0]"] ;
5 -> 6 ;
7 [label="x[3] <= 163.5\ngini = 0.04\nsamples = 1238\nvalue = [25, 1213]"] ;
5 -> 7 ;
8 [label="x[0] <= 0.34\ngini = 0.018\nsamples = 1219\nvalue = [11, 1208]"] ;
7 -> 8 ;
9 [label="x[3] <= 140.0\ngini = 0.346\nsamples = 9\nvalue = [7, 2]"] ;
8 -> 9 ;
10 [label="gini = 0.0\nsamples = 2\nvalue = [0, 2]"] ;
9 -> 10 ;
11 [label="gini = 0.0\nsamples = 7\nvalue = [7, 0]"] ;
9 -> 11 ;
12 [label="x[7] <= 1.5\ngini = 0.007\nsamples = 1210\nvalue = [4, 1206]"] ;
8 -> 12 ;
13 [label="x[14] <= 0.5\ngini = 0.002\nsamples = 1171\nvalue = [1, 1170]"] ;
12 -> 13 ;
14 [label="gini = 0.0\nsamples = 813\nvalue = [0, 813]"] ;
13 -> 14 ;
15 [label="x[3] <= 150.5\ngini = 0.006\nsamples = 358\nvalue = [1, 357]"] ;
13 -> 15 ;
16 [label="gini = 0.0\nsamples = 234\nvalue = [0, 234]"] ;
15 -> 16 ;
17 [label="x[3] <= 151.5\ngini = 0.016\nsamples = 124\nvalue = [1, 123]"] ;
15 -> 17 ;
18 [label="x[0] <= 0.415\ngini = 0.198\nsamples = 9\nvalue = [1, 8]"] ;
17 -> 18 ;
19 [label="gini = 0.0\nsamples = 8\nvalue = [0, 8]"] ;
18 -> 19 ;
20 [label="gini = 0.0\nsamples = 1\nvalue = [1, 0]"] ;
18 -> 20 ;
21 [label="gini = 0.0\nsamples = 115\nvalue = [0, 115]"] ;
17 -> 21 ;
22 [label="x[5] <= 0.5\ngini = 0.142\nsamples = 39\nvalue = [3, 36]"] ;
12 -> 22 ;
23 [label="x[8] <= 0.5\ngini = 0.1\nsamples = 38\nvalue = [2, 36]"] ;
22 -> 23 ;
24 [label="gini = 0.0\nsamples = 34\nvalue = [0, 34]"] ;
23 -> 24 ;
25 [label="x[0] <= 0.385\ngini = 0.5\nsamples = 4\nvalue = [2, 2]"] ;
23 -> 25 ;
26 [label="gini = 0.0\nsamples = 2\nvalue = [2, 0]"] ;
25 -> 26 ;
27 [label="gini = 0.0\nsamples = 2\nvalue = [0, 2]"] ;
25 -> 27 ;
28 [label="gini = 0.0\nsamples = 1\nvalue = [1, 0]"] ;
22 -> 28 ;
29 [label="x[3] <= 234.0\ngini = 0.388\nsamples = 19\nvalue = [14, 5]"] ;
7 -> 29 ;
30 [label="gini = 0.0\nsamples = 13\nvalue = [13, 0]"] ;
29 -> 30 ;
31 [label="x[3] <= 266.0\ngini = 0.278\nsamples = 6\nvalue = [1, 5]"] ;
29 -> 31 ;
32 [label="gini = 0.0\nsamples = 5\nvalue = [0, 5]"] ;
31 -> 32 ;
33 [label="gini = 0.0\nsamples = 1\nvalue = [1, 0]"] ;
31 -> 33 ;
34 [label="x[3] <= 280.0\ngini = 0.088\nsamples = 108\nvalue = [103, 5]"] ;
2 -> 34 ;
35 [label="x[16] <= 0.5\ngini = 0.056\nsamples = 105\nvalue = [102, 3]"] ;
34 -> 35 ;
36 [label="gini = 0.0\nsamples = 87\nvalue = [87, 0]"] ;
35 -> 36 ;
37 [label="x[3] <= 157.0\ngini = 0.278\nsamples = 18\nvalue = [15, 3]"] ;
35 -> 37 ;
38 [label="x[3] <= 145.0\ngini = 0.49\nsamples = 7\nvalue = [4, 3]"] ;
37 -> 38 ;
39 [label="gini = 0.0\nsamples = 4\nvalue = [4, 0]"] ;
38 -> 39 ;
40 [label="gini = 0.0\nsamples = 3\nvalue = [0, 3]"] ;
38 -> 40 ;
41 [label="gini = 0.0\nsamples = 11\nvalue = [11, 0]"] ;
37 -> 41 ;
42 [label="x[16] <= 0.5\ngini = 0.444\nsamples = 3\nvalue = [1, 2]"] ;
34 -> 42 ;
43 [label="gini = 0.0\nsamples = 2\nvalue = [0, 2]"] ;
42 -> 43 ;
44 [label="gini = 0.0\nsamples = 1\nvalue = [1, 0]"] ;
42 -> 44 ;
45 [label="x[0] <= 0.115\ngini = 0.487\nsamples = 1964\nvalue = [1143, 821]"] ;
1 -> 45 ;
46 [label="gini = 0.0\nsamples = 728\nvalue = [0, 728]"] ;
45 -> 46 ;
47 [label="x[2] <= 6.5\ngini = 0.139\nsamples = 1236\nvalue = [1143, 93]"] ;
45 -> 47 ;
48 [label="x[3] <= 289.0\ngini = 0.125\nsamples = 1225\nvalue = [1143, 82]"] ;
47 -> 48 ;
49 [label="x[1] <= 0.995\ngini = 0.111\nsamples = 1215\nvalue = [1143, 72]"] ;
48 -> 49 ;
50 [label="x[0] <= 0.305\ngini = 0.104\nsamples = 1201\nvalue = [1135, 66]"] ;
49 -> 50 ;
51 [label="x[0] <= 0.175\ngini = 0.068\nsamples = 742\nvalue = [716, 26]"] ;
50 -> 51 ;
52 [label="x[4] <= 3.5\ngini = 0.105\nsamples = 270\nvalue = [255, 15]"] ;
51 -> 52 ;
53 [label="x[1] <= 0.77\ngini = 0.216\nsamples = 65\nvalue = [57, 8]"] ;
52 -> 53 ;
54 [label="x[10] <= 0.5\ngini = 0.124\nsamples = 45\nvalue = [42, 3]"] ;
53 -> 54 ;
55 [label="x[0] <= 0.145\ngini = 0.089\nsamples = 43\nvalue = [41, 2]"] ;
54 -> 55 ;
56 [label="x[0] <= 0.135\ngini = 0.32\nsamples = 10\nvalue = [8, 2]"] ;
55 -> 56 ;
57 [label="gini = 0.0\nsamples = 7\nvalue = [7, 0]"] ;
56 -> 57 ;
58 [label="x[7] <= 1.5\ngini = 0.444\nsamples = 3\nvalue = [1, 2]"] ;
56 -> 58 ;
59 [label="gini = 0.0\nsamples = 2\nvalue = [0, 2]"] ;
58 -> 59 ;
60 [label="gini = 0.0\nsamples = 1\nvalue = [1, 0]"] ;
58 -> 60 ;
61 [label="gini = 0.0\nsamples = 33\nvalue = [33, 0]"] ;
55 -> 61 ;
62 [label="x[0] <= 0.145\ngini = 0.5\nsamples = 2\nvalue = [1, 1]"] ;
54 -> 62 ;
63 [label="gini = 0.0\nsamples = 1\nvalue = [1, 0]"] ;
62 -> 63 ;
64 [label="gini = 0.0\nsamples = 1\nvalue = [0, 1]"] ;
62 -> 64 ;
65 [label="x[0] <= 0.165\ngini = 0.375\nsamples = 20\nvalue = [15, 5]"] ;
53 -> 65 ;
66 [label="x[1] <= 0.805\ngini = 0.208\nsamples = 17\nvalue = [15, 2]"] ;
65 -> 66 ;
67 [label="x[0] <= 0.135\ngini = 0.48\nsamples = 5\nvalue = [3, 2]"] ;
66 -> 67 ;
68 [label="gini = 0.0\nsamples = 2\nvalue = [0, 2]"] ;
67 -> 68 ;
69 [label="gini = 0.0\nsamples = 3\nvalue = [3, 0]"] ;
67 -> 69 ;
70 [label="gini = 0.0\nsamples = 12\nvalue = [12, 0]"] ;
66 -> 70 ;
71 [label="gini = 0.0\nsamples = 3\nvalue = [0, 3]"] ;
65 -> 71 ;
72 [label="x[1] <= 0.755\ngini = 0.066\nsamples = 205\nvalue = [198, 7]"] ;
52 -> 72 ;
73 [label="x[1] <= 0.745\ngini = 0.121\nsamples = 108\nvalue = [101, 7]"] ;
72 -> 73 ;
74 [label="x[3] <= 159.0\ngini = 0.092\nsamples = 104\nvalue = [99, 5]"] ;
73 -> 74 ;
75 [label="x[3] <= 156.0\ngini = 0.219\nsamples = 24\nvalue = [21, 3]"] ;
74 -> 75 ;
76 [label="x[7] <= 1.5\ngini = 0.087\nsamples = 22\nvalue = [21, 1]"] ;
75 -> 76 ;
77 [label="gini = 0.0\nsamples = 17\nvalue = [17, 0]"] ;
76 -> 77 ;
78 [label="x[15] <= 0.5\ngini = 0.32\nsamples = 5\nvalue = [4, 1]"] ;
76 -> 78 ;
79 [label="gini = 0.0\nsamples = 4\nvalue = [4, 0]"] ;
78 -> 79 ;
80 [label="gini = 0.0\nsamples = 1\nvalue = [0, 1]"] ;
78 -> 80 ;
81 [label="gini = 0.0\nsamples = 2\nvalue = [0, 2]"] ;
75 -> 81 ;
82 [label="x[3] <= 276.5\ngini = 0.049\nsamples = 80\nvalue = [78, 2]"] ;
74 -> 82 ;
83 [label="x[0] <= 0.165\ngini = 0.026\nsamples = 75\nvalue = [74, 1]"] ;
82 -> 83 ;
84 [label="gini = 0.0\nsamples = 62\nvalue = [62, 0]"] ;
83 -> 84 ;
85 [label="x[14] <= 0.5\ngini = 0.142\nsamples = 13\nvalue = [12, 1]"] ;
83 -> 85 ;
86 [label="gini = 0.0\nsamples = 9\nvalue = [9, 0]"] ;
85 -> 86 ;
87 [label="x[2] <= 5.5\ngini = 0.375\nsamples = 4\nvalue = [3, 1]"] ;
85 -> 87 ;
88 [label="gini = 0.0\nsamples = 2\nvalue = [2, 0]"] ;
87 -> 88 ;
89 [label="x[5] <= 0.5\ngini = 0.5\nsamples = 2\nvalue = [1, 1]"] ;
87 -> 89 ;
90 [label="gini = 0.0\nsamples = 1\nvalue = [0, 1]"] ;
89 -> 90 ;
91 [label="gini = 0.0\nsamples = 1\nvalue = [1, 0]"] ;
89 -> 91 ;
92 [label="x[3] <= 279.0\ngini = 0.32\nsamples = 5\nvalue = [4, 1]"] ;
82 -> 92 ;
93 [label="gini = 0.0\nsamples = 1\nvalue = [0, 1]"] ;
92 -> 93 ;
94 [label="gini = 0.0\nsamples = 4\nvalue = [4, 0]"] ;
92 -> 94 ;
95 [label="x[2] <= 3.5\ngini = 0.5\nsamples = 4\nvalue = [2, 2]"] ;
73 -> 95 ;
96 [label="x[7] <= 0.5\ngini = 0.444\nsamples = 3\nvalue = [2, 1]"] ;
95 -> 96 ;
97 [label="gini = 0.0\nsamples = 1\nvalue = [0, 1]"] ;
96 -> 97 ;
98 [label="gini = 0.0\nsamples = 2\nvalue = [2, 0]"] ;
96 -> 98 ;
99 [label="gini = 0.0\nsamples = 1\nvalue = [0, 1]"] ;
95 -> 99 ;
100 [label="gini = 0.0\nsamples = 97\nvalue = [97, 0]"] ;
72 -> 100 ;
101 [label="x[1] <= 0.505\ngini = 0.046\nsamples = 472\nvalue = [461, 11]"] ;
51 -> 101 ;
102 [label="x[9] <= 0.5\ngini = 0.137\nsamples = 81\nvalue = [75, 6]"] ;
101 -> 102 ;
103 [label="x[3] <= 212.0\ngini = 0.1\nsamples = 76\nvalue = [72, 4]"] ;
102 -> 103 ;
104 [label="gini = 0.0\nsamples = 49\nvalue = [49, 0]"] ;
103 -> 104 ;
105 [label="x[3] <= 219.5\ngini = 0.252\nsamples = 27\nvalue = [23, 4]"] ;
103 -> 105 ;
106 [label="x[1] <= 0.465\ngini = 0.5\nsamples = 8\nvalue = [4, 4]"] ;
105 -> 106 ;
107 [label="x[1] <= 0.44\ngini = 0.32\nsamples = 5\nvalue = [1, 4]"] ;
106 -> 107 ;
108 [label="gini = 0.0\nsamples = 1\nvalue = [1, 0]"] ;
107 -> 108 ;
109 [label="gini = 0.0\nsamples = 4\nvalue = [0, 4]"] ;
107 -> 109 ;
110 [label="gini = 0.0\nsamples = 3\nvalue = [3, 0]"] ;
106 -> 110 ;
111 [label="gini = 0.0\nsamples = 19\nvalue = [19, 0]"] ;
105 -> 111 ;
112 [label="x[4] <= 5.5\ngini = 0.48\nsamples = 5\nvalue = [3, 2]"] ;
102 -> 112 ;
113 [label="gini = 0.0\nsamples = 3\nvalue = [3, 0]"] ;
112 -> 113 ;
114 [label="gini = 0.0\nsamples = 2\nvalue = [0, 2]"] ;
112 -> 114 ;
115 [label="x[1] <= 0.985\ngini = 0.025\nsamples = 391\nvalue = [386, 5]"] ;
101 -> 115 ;
116 [label="x[3] <= 280.5\ngini = 0.021\nsamples = 382\nvalue = [378, 4]"] ;
115 -> 116 ;
117 [label="x[0] <= 0.295\ngini = 0.016\nsamples = 369\nvalue = [366, 3]"] ;
116 -> 117 ;
118 [label="x[3] <= 168.5\ngini = 0.011\nsamples = 355\nvalue = [353, 2]"] ;
117 -> 118 ;
119 [label="x[3] <= 167.5\ngini = 0.034\nsamples = 116\nvalue = [114, 2]"] ;
118 -> 119 ;
120 [label="x[16] <= 0.5\ngini = 0.018\nsamples = 113\nvalue = [112, 1]"] ;
119 -> 120 ;
121 [label="gini = 0.0\nsamples = 96\nvalue = [96, 0]"] ;
120 -> 121 ;
122 [label="x[1] <= 0.875\ngini = 0.111\nsamples = 17\nvalue = [16, 1]"] ;
120 -> 122 ;
123 [label="gini = 0.0\nsamples = 14\nvalue = [14, 0]"] ;
122 -> 123 ;
124 [label="x[4] <= 3.5\ngini = 0.444\nsamples = 3\nvalue = [2, 1]"] ;
122 -> 124 ;
125 [label="gini = 0.0\nsamples = 1\nvalue = [0, 1]"] ;
124 -> 125 ;
126 [label="gini = 0.0\nsamples = 2\nvalue = [2, 0]"] ;
124 -> 126 ;
127 [label="x[2] <= 4.0\ngini = 0.444\nsamples = 3\nvalue = [2, 1]"] ;
119 -> 127 ;
128 [label="gini = 0.0\nsamples = 2\nvalue = [2, 0]"] ;
127 -> 128 ;
129 [label="gini = 0.0\nsamples = 1\nvalue = [0, 1]"] ;
127 -> 129 ;
130 [label="gini = 0.0\nsamples = 239\nvalue = [239, 0]"] ;
118 -> 130 ;
131 [label="x[9] <= 0.5\ngini = 0.133\nsamples = 14\nvalue = [13, 1]"] ;
117 -> 131 ;
132 [label="gini = 0.0\nsamples = 13\nvalue = [13, 0]"] ;
131 -> 132 ;
133 [label="gini = 0.0\nsamples = 1\nvalue = [0, 1]"] ;
131 -> 133 ;
134 [label="x[0] <= 0.205\ngini = 0.142\nsamples = 13\nvalue = [12, 1]"] ;
116 -> 134 ;
135 [label="x[14] <= 0.5\ngini = 0.375\nsamples = 4\nvalue = [3, 1]"] ;
134 -> 135 ;
136 [label="gini = 0.0\nsamples = 3\nvalue = [3, 0]"] ;
135 -> 136 ;
137 [label="gini = 0.0\nsamples = 1\nvalue = [0, 1]"] ;
135 -> 137 ;
138 [label="gini = 0.0\nsamples = 9\nvalue = [9, 0]"] ;
134 -> 138 ;
139 [label="x[3] <= 194.0\ngini = 0.198\nsamples = 9\nvalue = [8, 1]"] ;
115 -> 139 ;
140 [label="gini = 0.0\nsamples = 7\nvalue = [7, 0]"] ;
139 -> 140 ;
141 [label="x[5] <= 0.5\ngini = 0.5\nsamples = 2\nvalue = [1, 1]"] ;
139 -> 141 ;
142 [label="gini = 0.0\nsamples = 1\nvalue = [1, 0]"] ;
141 -> 142 ;
143 [label="gini = 0.0\nsamples = 1\nvalue = [0, 1]"] ;
141 -> 143 ;
144 [label="x[0] <= 0.315\ngini = 0.159\nsamples = 459\nvalue = [419, 40]"] ;
50 -> 144 ;
145 [label="x[2] <= 3.5\ngini = 0.408\nsamples = 35\nvalue = [25, 10]"] ;
144 -> 145 ;
146 [label="gini = 0.0\nsamples = 9\nvalue = [9, 0]"] ;
145 -> 146 ;
147 [label="x[5] <= 0.5\ngini = 0.473\nsamples = 26\nvalue = [16, 10]"] ;
145 -> 147 ;
148 [label="x[3] <= 233.5\ngini = 0.5\nsamples = 20\nvalue = [10, 10]"] ;
147 -> 148 ;
149 [label="x[3] <= 190.5\ngini = 0.469\nsamples = 16\nvalue = [10, 6]"] ;
148 -> 149 ;
150 [label="x[3] <= 120.0\ngini = 0.444\nsamples = 9\nvalue = [3, 6]"] ;
149 -> 150 ;
151 [label="gini = 0.0\nsamples = 3\nvalue = [3, 0]"] ;
150 -> 151 ;
152 [label="gini = 0.0\nsamples = 6\nvalue = [0, 6]"] ;
150 -> 152 ;
153 [label="gini = 0.0\nsamples = 7\nvalue = [7, 0]"] ;
149 -> 153 ;
154 [label="gini = 0.0\nsamples = 4\nvalue = [0, 4]"] ;
148 -> 154 ;
155 [label="gini = 0.0\nsamples = 6\nvalue = [6, 0]"] ;
147 -> 155 ;
156 [label="x[3] <= 198.5\ngini = 0.131\nsamples = 424\nvalue = [394, 30]"] ;
144 -> 156 ;
157 [label="x[1] <= 0.855\ngini = 0.072\nsamples = 293\nvalue = [282, 11]"] ;
156 -> 157 ;
158 [label="x[7] <= 0.5\ngini = 0.038\nsamples = 259\nvalue = [254, 5]"] ;
157 -> 158 ;
159 [label="x[0] <= 0.345\ngini = 0.085\nsamples = 113\nvalue = [108, 5]"] ;
158 -> 159 ;
160 [label="x[14] <= 0.5\ngini = 0.278\nsamples = 18\nvalue = [15, 3]"] ;
159 -> 160 ;
161 [label="gini = 0.0\nsamples = 13\nvalue = [13, 0]"] ;
160 -> 161 ;
162 [label="x[4] <= 2.5\ngini = 0.48\nsamples = 5\nvalue = [2, 3]"] ;
160 -> 162 ;
163 [label="gini = 0.0\nsamples = 3\nvalue = [0, 3]"] ;
162 -> 163 ;
164 [label="gini = 0.0\nsamples = 2\nvalue = [2, 0]"] ;
162 -> 164 ;
165 [label="x[12] <= 0.5\ngini = 0.041\nsamples = 95\nvalue = [93, 2]"] ;
159 -> 165 ;
166 [label="x[13] <= 0.5\ngini = 0.022\nsamples = 92\nvalue = [91, 1]"] ;
165 -> 166 ;
167 [label="gini = 0.0\nsamples = 89\nvalue = [89, 0]"] ;
166 -> 167 ;
168 [label="x[4] <= 3.5\ngini = 0.444\nsamples = 3\nvalue = [2, 1]"] ;
166 -> 168 ;
169 [label="gini = 0.0\nsamples = 2\nvalue = [2, 0]"] ;
168 -> 169 ;
170 [label="gini = 0.0\nsamples = 1\nvalue = [0, 1]"] ;
168 -> 170 ;
171 [label="x[3] <= 141.5\ngini = 0.444\nsamples = 3\nvalue = [2, 1]"] ;
165 -> 171 ;
172 [label="gini = 0.0\nsamples = 1\nvalue = [0, 1]"] ;
171 -> 172 ;
173 [label="gini = 0.0\nsamples = 2\nvalue = [2, 0]"] ;
171 -> 173 ;
174 [label="gini = 0.0\nsamples = 146\nvalue = [146, 0]"] ;
158 -> 174 ;
175 [label="x[0] <= 0.325\ngini = 0.291\nsamples = 34\nvalue = [28, 6]"] ;
157 -> 175 ;
176 [label="x[1] <= 0.91\ngini = 0.375\nsamples = 4\nvalue = [1, 3]"] ;
175 -> 176 ;
177 [label="gini = 0.0\nsamples = 1\nvalue = [1, 0]"] ;
176 -> 177 ;
178 [label="gini = 0.0\nsamples = 3\nvalue = [0, 3]"] ;
176 -> 178 ;
179 [label="x[16] <= 0.5\ngini = 0.18\nsamples = 30\nvalue = [27, 3]"] ;
175 -> 179 ;
180 [label="gini = 0.0\nsamples = 23\nvalue = [23, 0]"] ;
179 -> 180 ;
181 [label="x[1] <= 0.9\ngini = 0.49\nsamples = 7\nvalue = [4, 3]"] ;
179 -> 181 ;
182 [label="gini = 0.0\nsamples = 3\nvalue = [0, 3]"] ;
181 -> 182 ;
183 [label="gini = 0.0\nsamples = 4\nvalue = [4, 0]"] ;
181 -> 183 ;
184 [label="x[3] <= 199.5\ngini = 0.248\nsamples = 131\nvalue = [112, 19]"] ;
156 -> 184 ;
185 [label="x[7] <= 0.5\ngini = 0.375\nsamples = 4\nvalue = [1, 3]"] ;
184 -> 185 ;
186 [label="gini = 0.0\nsamples = 1\nvalue = [1, 0]"] ;
185 -> 186 ;
187 [label="gini = 0.0\nsamples = 3\nvalue = [0, 3]"] ;
185 -> 187 ;
188 [label="x[11] <= 0.5\ngini = 0.22\nsamples = 127\nvalue = [111, 16]"] ;
184 -> 188 ;
189 [label="x[1] <= 0.615\ngini = 0.19\nsamples = 122\nvalue = [109, 13]"] ;
188 -> 189 ;
190 [label="gini = 0.0\nsamples = 42\nvalue = [42, 0]"] ;
189 -> 190 ;
191 [label="x[1] <= 0.655\ngini = 0.272\nsamples = 80\nvalue = [67, 13]"] ;
189 -> 191 ;
192 [label="x[0] <= 0.425\ngini = 0.494\nsamples = 9\nvalue = [5, 4]"] ;
191 -> 192 ;
193 [label="gini = 0.0\nsamples = 5\nvalue = [5, 0]"] ;
192 -> 193 ;
194 [label="gini = 0.0\nsamples = 4\nvalue = [0, 4]"] ;
192 -> 194 ;
195 [label="x[1] <= 0.98\ngini = 0.221\nsamples = 71\nvalue = [62, 9]"] ;
191 -> 195 ;
196 [label="x[15] <= 0.5\ngini = 0.187\nsamples = 67\nvalue = [60, 7]"] ;
195 -> 196 ;
197 [label="x[3] <= 275.5\ngini = 0.131\nsamples = 57\nvalue = [53, 4]"] ;
196 -> 197 ;
198 [label="x[0] <= 0.445\ngini = 0.075\nsamples = 51\nvalue = [49, 2]"] ;
197 -> 198 ;
199 [label="x[3] <= 205.5\ngini = 0.04\nsamples = 49\nvalue = [48, 1]"] ;
198 -> 199 ;
200 [label="x[0] <= 0.405\ngini = 0.32\nsamples = 5\nvalue = [4, 1]"] ;
199 -> 200 ;
201 [label="gini = 0.0\nsamples = 4\nvalue = [4, 0]"] ;
200 -> 201 ;
202 [label="gini = 0.0\nsamples = 1\nvalue = [0, 1]"] ;
200 -> 202 ;
203 [label="gini = 0.0\nsamples = 44\nvalue = [44, 0]"] ;
199 -> 203 ;
204 [label="x[4] <= 4.5\ngini = 0.5\nsamples = 2\nvalue = [1, 1]"] ;
198 -> 204 ;
205 [label="gini = 0.0\nsamples = 1\nvalue = [0, 1]"] ;
204 -> 205 ;
206 [label="gini = 0.0\nsamples = 1\nvalue = [1, 0]"] ;
204 -> 206 ;
207 [label="x[0] <= 0.345\ngini = 0.444\nsamples = 6\nvalue = [4, 2]"] ;
197 -> 207 ;
208 [label="gini = 0.0\nsamples = 3\nvalue = [3, 0]"] ;
207 -> 208 ;
209 [label="x[1] <= 0.7\ngini = 0.444\nsamples = 3\nvalue = [1, 2]"] ;
207 -> 209 ;
210 [label="gini = 0.0\nsamples = 1\nvalue = [1, 0]"] ;
209 -> 210 ;
211 [label="gini = 0.0\nsamples = 2\nvalue = [0, 2]"] ;
209 -> 211 ;
212 [label="x[3] <= 224.0\ngini = 0.42\nsamples = 10\nvalue = [7, 3]"] ;
196 -> 212 ;
213 [label="gini = 0.0\nsamples = 3\nvalue = [0, 3]"] ;
212 -> 213 ;
214 [label="gini = 0.0\nsamples = 7\nvalue = [7, 0]"] ;
212 -> 214 ;
215 [label="x[2] <= 3.5\ngini = 0.5\nsamples = 4\nvalue = [2, 2]"] ;
195 -> 215 ;
216 [label="gini = 0.0\nsamples = 2\nvalue = [0, 2]"] ;
215 -> 216 ;
217 [label="gini = 0.0\nsamples = 2\nvalue = [2, 0]"] ;
215 -> 217 ;
218 [label="x[2] <= 3.5\ngini = 0.48\nsamples = 5\nvalue = [2, 3]"] ;
188 -> 218 ;
219 [label="gini = 0.0\nsamples = 2\nvalue = [0, 2]"] ;
218 -> 219 ;
220 [label="x[2] <= 5.5\ngini = 0.444\nsamples = 3\nvalue = [2, 1]"] ;
218 -> 220 ;
221 [label="gini = 0.0\nsamples = 2\nvalue = [2, 0]"] ;
220 -> 221 ;
222 [label="gini = 0.0\nsamples = 1\nvalue = [0, 1]"] ;
220 -> 222 ;
223 [label="x[3] <= 190.0\ngini = 0.49\nsamples = 14\nvalue = [8, 6]"] ;
49 -> 223 ;
224 [label="x[0] <= 0.365\ngini = 0.245\nsamples = 7\nvalue = [6, 1]"] ;
223 -> 224 ;
225 [label="gini = 0.0\nsamples = 6\nvalue = [6, 0]"] ;
224 -> 225 ;
226 [label="gini = 0.0\nsamples = 1\nvalue = [0, 1]"] ;
224 -> 226 ;
227 [label="x[2] <= 4.5\ngini = 0.408\nsamples = 7\nvalue = [2, 5]"] ;
223 -> 227 ;
228 [label="gini = 0.0\nsamples = 5\nvalue = [0, 5]"] ;
227 -> 228 ;
229 [label="gini = 0.0\nsamples = 2\nvalue = [2, 0]"] ;
227 -> 229 ;
230 [label="gini = 0.0\nsamples = 10\nvalue = [0, 10]"] ;
48 -> 230 ;
231 [label="gini = 0.0\nsamples = 11\nvalue = [0, 11]"] ;
47 -> 231 ;
232 [label="x[4] <= 4.5\ngini = 0.173\nsamples = 8645\nvalue = [7819, 826]"] ;
0 -> 232 [labeldistance=2.5, labelangle=-45, headlabel="False"] ;
233 [label="x[2] <= 6.5\ngini = 0.029\nsamples = 7053\nvalue = [6951, 102]"] ;
232 -> 233 ;
234 [label="x[3] <= 290.5\ngini = 0.027\nsamples = 7049\nvalue = [6951, 98]"] ;
233 -> 234 ;
235 [label="x[4] <= 3.5\ngini = 0.026\nsamples = 7045\nvalue = [6951, 94]"] ;
234 -> 235 ;
236 [label="x[2] <= 5.5\ngini = 0.017\nsamples = 5943\nvalue = [5892, 51]"] ;
235 -> 236 ;
237 [label="x[2] <= 2.5\ngini = 0.015\nsamples = 5866\nvalue = [5822, 44]"] ;
236 -> 237 ;
238 [label="x[3] <= 196.5\ngini = 0.085\nsamples = 338\nvalue = [323, 15]"] ;
237 -> 238 ;
239 [label="x[1] <= 0.895\ngini = 0.011\nsamples = 177\nvalue = [176, 1]"] ;
238 -> 239 ;
240 [label="gini = 0.0\nsamples = 156\nvalue = [156, 0]"] ;
239 -> 240 ;
241 [label="x[0] <= 0.845\ngini = 0.091\nsamples = 21\nvalue = [20, 1]"] ;
239 -> 241 ;
242 [label="gini = 0.0\nsamples = 17\nvalue = [17, 0]"] ;
241 -> 242 ;
243 [label="x[4] <= 2.5\ngini = 0.375\nsamples = 4\nvalue = [3, 1]"] ;
241 -> 243 ;
244 [label="gini = 0.0\nsamples = 1\nvalue = [0, 1]"] ;
243 -> 244 ;
245 [label="gini = 0.0\nsamples = 3\nvalue = [3, 0]"] ;
243 -> 245 ;
246 [label="x[0] <= 0.485\ngini = 0.159\nsamples = 161\nvalue = [147, 14]"] ;
238 -> 246 ;
247 [label="gini = 0.0\nsamples = 3\nvalue = [0, 3]"] ;
246 -> 247 ;
248 [label="x[1] <= 0.48\ngini = 0.13\nsamples = 158\nvalue = [147, 11]"] ;
246 -> 248 ;
249 [label="x[1] <= 0.465\ngini = 0.397\nsamples = 11\nvalue = [8, 3]"] ;
248 -> 249 ;
250 [label="gini = 0.0\nsamples = 8\nvalue = [8, 0]"] ;
249 -> 250 ;
251 [label="gini = 0.0\nsamples = 3\nvalue = [0, 3]"] ;
249 -> 251 ;
252 [label="x[1] <= 0.995\ngini = 0.103\nsamples = 147\nvalue = [139, 8]"] ;
248 -> 252 ;
253 [label="x[15] <= 0.5\ngini = 0.092\nsamples = 145\nvalue = [138, 7]"] ;
252 -> 253 ;
254 [label="x[3] <= 254.5\ngini = 0.061\nsamples = 127\nvalue = [123, 4]"] ;
253 -> 254 ;
255 [label="gini = 0.0\nsamples = 88\nvalue = [88, 0]"] ;
254 -> 255 ;
256 [label="x[3] <= 256.0\ngini = 0.184\nsamples = 39\nvalue = [35, 4]"] ;
254 -> 256 ;
257 [label="x[16] <= 0.5\ngini = 0.375\nsamples = 4\nvalue = [1, 3]"] ;
256 -> 257 ;
258 [label="gini = 0.0\nsamples = 1\nvalue = [1, 0]"] ;
257 -> 258 ;
259 [label="gini = 0.0\nsamples = 3\nvalue = [0, 3]"] ;
257 -> 259 ;
260 [label="x[8] <= 0.5\ngini = 0.056\nsamples = 35\nvalue = [34, 1]"] ;
256 -> 260 ;
261 [label="gini = 0.0\nsamples = 33\nvalue = [33, 0]"] ;
260 -> 261 ;
262 [label="x[1] <= 0.925\ngini = 0.5\nsamples = 2\nvalue = [1, 1]"] ;
260 -> 262 ;
263 [label="gini = 0.0\nsamples = 1\nvalue = [1, 0]"] ;
262 -> 263 ;
264 [label="gini = 0.0\nsamples = 1\nvalue = [0, 1]"] ;
262 -> 264 ;
265 [label="x[3] <= 211.5\ngini = 0.278\nsamples = 18\nvalue = [15, 3]"] ;
253 -> 265 ;
266 [label="x[5] <= 0.5\ngini = 0.375\nsamples = 4\nvalue = [1, 3]"] ;
265 -> 266 ;
267 [label="gini = 0.0\nsamples = 3\nvalue = [0, 3]"] ;
266 -> 267 ;
268 [label="gini = 0.0\nsamples = 1\nvalue = [1, 0]"] ;
266 -> 268 ;
269 [label="gini = 0.0\nsamples = 14\nvalue = [14, 0]"] ;
265 -> 269 ;
270 [label="x[0] <= 0.725\ngini = 0.5\nsamples = 2\nvalue = [1, 1]"] ;
252 -> 270 ;
271 [label="gini = 0.0\nsamples = 1\nvalue = [0, 1]"] ;
270 -> 271 ;
272 [label="gini = 0.0\nsamples = 1\nvalue = [1, 0]"] ;
270 -> 272 ;
273 [label="x[0] <= 0.475\ngini = 0.01\nsamples = 5528\nvalue = [5499, 29]"] ;
237 -> 273 ;
274 [label="x[9] <= 0.5\ngini = 0.153\nsamples = 12\nvalue = [11, 1]"] ;
273 -> 274 ;
275 [label="gini = 0.0\nsamples = 11\nvalue = [11, 0]"] ;
274 -> 275 ;
276 [label="gini = 0.0\nsamples = 1\nvalue = [0, 1]"] ;
274 -> 276 ;
277 [label="x[0] <= 0.585\ngini = 0.01\nsamples = 5516\nvalue = [5488, 28]"] ;
273 -> 277 ;
278 [label="x[10] <= 0.5\ngini = 0.023\nsamples = 1136\nvalue = [1123, 13]"] ;
277 -> 278 ;
279 [label="x[14] <= 0.5\ngini = 0.018\nsamples = 1083\nvalue = [1073, 10]"] ;
278 -> 279 ;
280 [label="x[3] <= 139.0\ngini = 0.008\nsamples = 781\nvalue = [778, 3]"] ;
279 -> 280 ;
281 [label="x[3] <= 137.5\ngini = 0.069\nsamples = 56\nvalue = [54, 2]"] ;
280 -> 281 ;
282 [label="x[16] <= 0.5\ngini = 0.037\nsamples = 53\nvalue = [52, 1]"] ;
281 -> 282 ;
283 [label="gini = 0.0\nsamples = 41\nvalue = [41, 0]"] ;
282 -> 283 ;
284 [label="x[1] <= 0.8\ngini = 0.153\nsamples = 12\nvalue = [11, 1]"] ;
282 -> 284 ;
285 [label="x[1] <= 0.7\ngini = 0.278\nsamples = 6\nvalue = [5, 1]"] ;
284 -> 285 ;
286 [label="gini = 0.0\nsamples = 5\nvalue = [5, 0]"] ;
285 -> 286 ;
287 [label="gini = 0.0\nsamples = 1\nvalue = [0, 1]"] ;
285 -> 287 ;
288 [label="gini = 0.0\nsamples = 6\nvalue = [6, 0]"] ;
284 -> 288 ;
289 [label="x[1] <= 0.835\ngini = 0.444\nsamples = 3\nvalue = [2, 1]"] ;
281 -> 289 ;
290 [label="gini = 0.0\nsamples = 2\nvalue = [2, 0]"] ;
289 -> 290 ;
291 [label="gini = 0.0\nsamples = 1\nvalue = [0, 1]"] ;
289 -> 291 ;
292 [label="x[8] <= 0.5\ngini = 0.003\nsamples = 725\nvalue = [724, 1]"] ;
280 -> 292 ;
293 [label="gini = 0.0\nsamples = 646\nvalue = [646, 0]"] ;
292 -> 293 ;
294 [label="x[1] <= 0.855\ngini = 0.025\nsamples = 79\nvalue = [78, 1]"] ;
292 -> 294 ;
295 [label="gini = 0.0\nsamples = 65\nvalue = [65, 0]"] ;
294 -> 295 ;
296 [label="x[1] <= 0.865\ngini = 0.133\nsamples = 14\nvalue = [13, 1]"] ;
294 -> 296 ;
297 [label="gini = 0.0\nsamples = 1\nvalue = [0, 1]"] ;
296 -> 297 ;
298 [label="gini = 0.0\nsamples = 13\nvalue = [13, 0]"] ;
296 -> 298 ;
299 [label="x[0] <= 0.535\ngini = 0.045\nsamples = 302\nvalue = [295, 7]"] ;
279 -> 299 ;
300 [label="x[0] <= 0.485\ngini = 0.012\nsamples = 168\nvalue = [167, 1]"] ;
299 -> 300 ;
301 [label="x[3] <= 233.0\ngini = 0.142\nsamples = 13\nvalue = [12, 1]"] ;
300 -> 301 ;
302 [label="gini = 0.0\nsamples = 12\nvalue = [12, 0]"] ;
301 -> 302 ;
303 [label="gini = 0.0\nsamples = 1\nvalue = [0, 1]"] ;
301 -> 303 ;
304 [label="gini = 0.0\nsamples = 155\nvalue = [155, 0]"] ;
300 -> 304 ;
305 [label="x[0] <= 0.545\ngini = 0.086\nsamples = 134\nvalue = [128, 6]"] ;
299 -> 305 ;
306 [label="x[3] <= 169.0\ngini = 0.269\nsamples = 25\nvalue = [21, 4]"] ;
305 -> 306 ;
307 [label="x[3] <= 163.5\ngini = 0.49\nsamples = 7\nvalue = [4, 3]"] ;
306 -> 307 ;
308 [label="gini = 0.0\nsamples = 4\nvalue = [4, 0]"] ;
307 -> 308 ;
309 [label="gini = 0.0\nsamples = 3\nvalue = [0, 3]"] ;
307 -> 309 ;
310 [label="x[3] <= 259.5\ngini = 0.105\nsamples = 18\nvalue = [17, 1]"] ;
306 -> 310 ;
311 [label="gini = 0.0\nsamples = 16\nvalue = [16, 0]"] ;
310 -> 311 ;
312 [label="x[1] <= 0.52\ngini = 0.5\nsamples = 2\nvalue = [1, 1]"] ;
310 -> 312 ;
313 [label="gini = 0.0\nsamples = 1\nvalue = [1, 0]"] ;
312 -> 313 ;
314 [label="gini = 0.0\nsamples = 1\nvalue = [0, 1]"] ;
312 -> 314 ;
315 [label="x[3] <= 217.5\ngini = 0.036\nsamples = 109\nvalue = [107, 2]"] ;
305 -> 315 ;
316 [label="gini = 0.0\nsamples = 63\nvalue = [63, 0]"] ;
315 -> 316 ;
317 [label="x[3] <= 219.5\ngini = 0.083\nsamples = 46\nvalue = [44, 2]"] ;
315 -> 317 ;
318 [label="gini = 0.0\nsamples = 1\nvalue = [0, 1]"] ;
317 -> 318 ;
319 [label="x[2] <= 4.5\ngini = 0.043\nsamples = 45\nvalue = [44, 1]"] ;
317 -> 319 ;
320 [label="gini = 0.0\nsamples = 37\nvalue = [37, 0]"] ;
319 -> 320 ;
321 [label="x[3] <= 236.5\ngini = 0.219\nsamples = 8\nvalue = [7, 1]"] ;
319 -> 321 ;
322 [label="gini = 0.0\nsamples = 1\nvalue = [0, 1]"] ;
321 -> 322 ;
323 [label="gini = 0.0\nsamples = 7\nvalue = [7, 0]"] ;
321 -> 323 ;
324 [label="x[0] <= 0.575\ngini = 0.107\nsamples = 53\nvalue = [50, 3]"] ;
278 -> 324 ;
325 [label="gini = 0.0\nsamples = 45\nvalue = [45, 0]"] ;
324 -> 325 ;
326 [label="x[3] <= 225.0\ngini = 0.469\nsamples = 8\nvalue = [5, 3]"] ;
324 -> 326 ;
327 [label="gini = 0.0\nsamples = 5\nvalue = [5, 0]"] ;
326 -> 327 ;
328 [label="gini = 0.0\nsamples = 3\nvalue = [0, 3]"] ;
326 -> 328 ;
329 [label="x[3] <= 262.5\ngini = 0.007\nsamples = 4380\nvalue = [4365, 15]"] ;
277 -> 329 ;
330 [label="x[6] <= 0.5\ngini = 0.005\nsamples = 3985\nvalue = [3975, 10]"] ;
329 -> 330 ;
331 [label="x[1] <= 0.455\ngini = 0.004\nsamples = 3892\nvalue = [3884, 8]"] ;
330 -> 331 ;
332 [label="x[1] <= 0.445\ngini = 0.056\nsamples = 35\nvalue = [34, 1]"] ;
331 -> 332 ;
333 [label="gini = 0.0\nsamples = 30\nvalue = [30, 0]"] ;
332 -> 333 ;
334 [label="x[0] <= 0.77\ngini = 0.32\nsamples = 5\nvalue = [4, 1]"] ;
332 -> 334 ;
335 [label="gini = 0.0\nsamples = 4\nvalue = [4, 0]"] ;
334 -> 335 ;
336 [label="gini = 0.0\nsamples = 1\nvalue = [0, 1]"] ;
334 -> 336 ;
337 [label="x[1] <= 0.995\ngini = 0.004\nsamples = 3857\nvalue = [3850, 7]"] ;
331 -> 337 ;
338 [label="x[2] <= 3.5\ngini = 0.003\nsamples = 3817\nvalue = [3811, 6]"] ;
337 -> 338 ;
339 [label="x[15] <= 0.5\ngini = 0.008\nsamples = 1565\nvalue = [1559, 6]"] ;
338 -> 339 ;
340 [label="x[14] <= 0.5\ngini = 0.005\nsamples = 1318\nvalue = [1315, 3]"] ;
339 -> 340 ;
341 [label="gini = 0.0\nsamples = 919\nvalue = [919, 0]"] ;
340 -> 341 ;
342 [label="x[7] <= 0.5\ngini = 0.015\nsamples = 399\nvalue = [396, 3]"] ;
340 -> 342 ;
343 [label="x[0] <= 0.785\ngini = 0.033\nsamples = 181\nvalue = [178, 3]"] ;
342 -> 343 ;
344 [label="x[0] <= 0.775\ngini = 0.063\nsamples = 92\nvalue = [89, 3]"] ;
343 -> 344 ;
345 [label="gini = 0.0\nsamples = 85\nvalue = [85, 0]"] ;
344 -> 345 ;
346 [label="x[1] <= 0.655\ngini = 0.49\nsamples = 7\nvalue = [4, 3]"] ;
344 -> 346 ;
347 [label="gini = 0.0\nsamples = 3\nvalue = [3, 0]"] ;
346 -> 347 ;
348 [label="x[1] <= 0.84\ngini = 0.375\nsamples = 4\nvalue = [1, 3]"] ;
346 -> 348 ;
349 [label="gini = 0.0\nsamples = 3\nvalue = [0, 3]"] ;
348 -> 349 ;
350 [label="gini = 0.0\nsamples = 1\nvalue = [1, 0]"] ;
348 -> 350 ;
351 [label="gini = 0.0\nsamples = 89\nvalue = [89, 0]"] ;
343 -> 351 ;
352 [label="gini = 0.0\nsamples = 218\nvalue = [218, 0]"] ;
342 -> 352 ;
353 [label="x[0] <= 0.635\ngini = 0.024\nsamples = 247\nvalue = [244, 3]"] ;
339 -> 353 ;
354 [label="x[3] <= 248.5\ngini = 0.142\nsamples = 26\nvalue = [24, 2]"] ;
353 -> 354 ;
355 [label="x[1] <= 0.92\ngini = 0.083\nsamples = 23\nvalue = [22, 1]"] ;
354 -> 355 ;
356 [label="gini = 0.0\nsamples = 18\nvalue = [18, 0]"] ;
355 -> 356 ;
357 [label="x[1] <= 0.95\ngini = 0.32\nsamples = 5\nvalue = [4, 1]"] ;
355 -> 357 ;
358 [label="gini = 0.0\nsamples = 1\nvalue = [0, 1]"] ;
357 -> 358 ;
359 [label="gini = 0.0\nsamples = 4\nvalue = [4, 0]"] ;
357 -> 359 ;
360 [label="x[3] <= 254.5\ngini = 0.444\nsamples = 3\nvalue = [2, 1]"] ;
354 -> 360 ;
361 [label="gini = 0.0\nsamples = 1\nvalue = [0, 1]"] ;
360 -> 361 ;
362 [label="gini = 0.0\nsamples = 2\nvalue = [2, 0]"] ;
360 -> 362 ;
363 [label="x[3] <= 149.5\ngini = 0.009\nsamples = 221\nvalue = [220, 1]"] ;
353 -> 363 ;
364 [label="x[3] <= 148.5\ngini = 0.044\nsamples = 44\nvalue = [43, 1]"] ;
363 -> 364 ;
365 [label="gini = 0.0\nsamples = 33\nvalue = [33, 0]"] ;
364 -> 365 ;
366 [label="x[4] <= 2.5\ngini = 0.165\nsamples = 11\nvalue = [10, 1]"] ;
364 -> 366 ;
367 [label="x[0] <= 0.81\ngini = 0.444\nsamples = 3\nvalue = [2, 1]"] ;
366 -> 367 ;
368 [label="gini = 0.0\nsamples = 2\nvalue = [2, 0]"] ;
367 -> 368 ;
369 [label="gini = 0.0\nsamples = 1\nvalue = [0, 1]"] ;
367 -> 369 ;
370 [label="gini = 0.0\nsamples = 8\nvalue = [8, 0]"] ;
366 -> 370 ;
371 [label="gini = 0.0\nsamples = 177\nvalue = [177, 0]"] ;
363 -> 371 ;
372 [label="gini = 0.0\nsamples = 2252\nvalue = [2252, 0]"] ;
338 -> 372 ;
373 [label="x[14] <= 0.5\ngini = 0.049\nsamples = 40\nvalue = [39, 1]"] ;
337 -> 373 ;
374 [label="gini = 0.0\nsamples = 29\nvalue = [29, 0]"] ;
373 -> 374 ;
375 [label="x[0] <= 0.715\ngini = 0.165\nsamples = 11\nvalue = [10, 1]"] ;
373 -> 375 ;
376 [label="gini = 0.0\nsamples = 8\nvalue = [8, 0]"] ;
375 -> 376 ;
377 [label="x[0] <= 0.725\ngini = 0.444\nsamples = 3\nvalue = [2, 1]"] ;
375 -> 377 ;
378 [label="gini = 0.0\nsamples = 1\nvalue = [0, 1]"] ;
377 -> 378 ;
379 [label="gini = 0.0\nsamples = 2\nvalue = [2, 0]"] ;
377 -> 379 ;
380 [label="x[3] <= 140.0\ngini = 0.042\nsamples = 93\nvalue = [91, 2]"] ;
330 -> 380 ;
381 [label="x[3] <= 138.0\ngini = 0.32\nsamples = 10\nvalue = [8, 2]"] ;
380 -> 381 ;
382 [label="gini = 0.0\nsamples = 8\nvalue = [8, 0]"] ;
381 -> 382 ;
383 [label="gini = 0.0\nsamples = 2\nvalue = [0, 2]"] ;
381 -> 383 ;
384 [label="gini = 0.0\nsamples = 83\nvalue = [83, 0]"] ;
380 -> 384 ;
385 [label="x[0] <= 0.795\ngini = 0.025\nsamples = 395\nvalue = [390, 5]"] ;
329 -> 385 ;
386 [label="gini = 0.0\nsamples = 218\nvalue = [218, 0]"] ;
385 -> 386 ;
387 [label="x[0] <= 0.805\ngini = 0.055\nsamples = 177\nvalue = [172, 5]"] ;
385 -> 387 ;
388 [label="x[1] <= 0.755\ngini = 0.32\nsamples = 10\nvalue = [8, 2]"] ;
387 -> 388 ;
389 [label="x[3] <= 268.5\ngini = 0.5\nsamples = 4\nvalue = [2, 2]"] ;
388 -> 389 ;
390 [label="gini = 0.0\nsamples = 2\nvalue = [0, 2]"] ;
389 -> 390 ;
391 [label="gini = 0.0\nsamples = 2\nvalue = [2, 0]"] ;
389 -> 391 ;
392 [label="gini = 0.0\nsamples = 6\nvalue = [6, 0]"] ;
388 -> 392 ;
393 [label="x[2] <= 4.5\ngini = 0.035\nsamples = 167\nvalue = [164, 3]"] ;
387 -> 393 ;
394 [label="gini = 0.0\nsamples = 133\nvalue = [133, 0]"] ;
393 -> 394 ;
395 [label="x[11] <= 0.5\ngini = 0.161\nsamples = 34\nvalue = [31, 3]"] ;
393 -> 395 ;
396 [label="x[3] <= 263.5\ngini = 0.114\nsamples = 33\nvalue = [31, 2]"] ;
395 -> 396 ;
397 [label="x[4] <= 2.5\ngini = 0.5\nsamples = 4\nvalue = [2, 2]"] ;
396 -> 397 ;
398 [label="gini = 0.0\nsamples = 2\nvalue = [0, 2]"] ;
397 -> 398 ;
399 [label="gini = 0.0\nsamples = 2\nvalue = [2, 0]"] ;
397 -> 399 ;
400 [label="gini = 0.0\nsamples = 29\nvalue = [29, 0]"] ;
396 -> 400 ;
401 [label="gini = 0.0\nsamples = 1\nvalue = [0, 1]"] ;
395 -> 401 ;
402 [label="x[1] <= 0.895\ngini = 0.165\nsamples = 77\nvalue = [70, 7]"] ;
236 -> 402 ;
403 [label="x[0] <= 0.495\ngini = 0.061\nsamples = 64\nvalue = [62, 2]"] ;
402 -> 403 ;
404 [label="x[3] <= 239.5\ngini = 0.444\nsamples = 3\nvalue = [2, 1]"] ;
403 -> 404 ;
405 [label="gini = 0.0\nsamples = 2\nvalue = [2, 0]"] ;
404 -> 405 ;
406 [label="gini = 0.0\nsamples = 1\nvalue = [0, 1]"] ;
404 -> 406 ;
407 [label="x[8] <= 0.5\ngini = 0.032\nsamples = 61\nvalue = [60, 1]"] ;
403 -> 407 ;
408 [label="gini = 0.0\nsamples = 56\nvalue = [56, 0]"] ;
407 -> 408 ;
409 [label="x[1] <= 0.675\ngini = 0.32\nsamples = 5\nvalue = [4, 1]"] ;
407 -> 409 ;
410 [label="gini = 0.0\nsamples = 4\nvalue = [4, 0]"] ;
409 -> 410 ;
411 [label="gini = 0.0\nsamples = 1\nvalue = [0, 1]"] ;
409 -> 411 ;
412 [label="x[7] <= 0.5\ngini = 0.473\nsamples = 13\nvalue = [8, 5]"] ;
402 -> 412 ;
413 [label="x[0] <= 0.88\ngini = 0.408\nsamples = 7\nvalue = [2, 5]"] ;
412 -> 413 ;
414 [label="gini = 0.0\nsamples = 5\nvalue = [0, 5]"] ;
413 -> 414 ;
415 [label="gini = 0.0\nsamples = 2\nvalue = [2, 0]"] ;
413 -> 415 ;
416 [label="gini = 0.0\nsamples = 6\nvalue = [6, 0]"] ;
412 -> 416 ;
417 [label="x[0] <= 0.475\ngini = 0.075\nsamples = 1102\nvalue = [1059, 43]"] ;
235 -> 417 ;
418 [label="x[1] <= 0.515\ngini = 0.49\nsamples = 7\nvalue = [4, 3]"] ;
417 -> 418 ;
419 [label="gini = 0.0\nsamples = 3\nvalue = [0, 3]"] ;
418 -> 419 ;
420 [label="gini = 0.0\nsamples = 4\nvalue = [4, 0]"] ;
418 -> 420 ;
421 [label="x[16] <= 0.5\ngini = 0.07\nsamples = 1095\nvalue = [1055, 40]"] ;
417 -> 421 ;
422 [label="x[10] <= 0.5\ngini = 0.05\nsamples = 889\nvalue = [866, 23]"] ;
421 -> 422 ;
423 [label="x[7] <= 0.5\ngini = 0.04\nsamples = 833\nvalue = [816, 17]"] ;
422 -> 423 ;
424 [label="x[3] <= 273.5\ngini = 0.07\nsamples = 385\nvalue = [371, 14]"] ;
423 -> 424 ;
425 [label="x[1] <= 0.755\ngini = 0.062\nsamples = 372\nvalue = [360, 12]"] ;
424 -> 425 ;
426 [label="x[2] <= 4.5\ngini = 0.021\nsamples = 193\nvalue = [191, 2]"] ;
425 -> 426 ;
427 [label="gini = 0.0\nsamples = 152\nvalue = [152, 0]"] ;
426 -> 427 ;
428 [label="x[0] <= 0.505\ngini = 0.093\nsamples = 41\nvalue = [39, 2]"] ;
426 -> 428 ;
429 [label="x[3] <= 162.0\ngini = 0.5\nsamples = 2\nvalue = [1, 1]"] ;
428 -> 429 ;
430 [label="gini = 0.0\nsamples = 1\nvalue = [0, 1]"] ;
429 -> 430 ;
431 [label="gini = 0.0\nsamples = 1\nvalue = [1, 0]"] ;
429 -> 431 ;
432 [label="x[1] <= 0.465\ngini = 0.05\nsamples = 39\nvalue = [38, 1]"] ;
428 -> 432 ;
433 [label="x[1] <= 0.455\ngini = 0.245\nsamples = 7\nvalue = [6, 1]"] ;
432 -> 433 ;
434 [label="gini = 0.0\nsamples = 6\nvalue = [6, 0]"] ;
433 -> 434 ;
435 [label="gini = 0.0\nsamples = 1\nvalue = [0, 1]"] ;
433 -> 435 ;
436 [label="gini = 0.0\nsamples = 32\nvalue = [32, 0]"] ;
432 -> 436 ;
437 [label="x[3] <= 234.0\ngini = 0.105\nsamples = 179\nvalue = [169, 10]"] ;
425 -> 437 ;
438 [label="x[3] <= 232.5\ngini = 0.146\nsamples = 126\nvalue = [116, 10]"] ;
437 -> 438 ;
439 [label="x[0] <= 0.635\ngini = 0.109\nsamples = 121\nvalue = [114, 7]"] ;
438 -> 439 ;
440 [label="x[0] <= 0.585\ngini = 0.239\nsamples = 36\nvalue = [31, 5]"] ;
439 -> 440 ;
441 [label="x[12] <= 0.5\ngini = 0.074\nsamples = 26\nvalue = [25, 1]"] ;
440 -> 441 ;
442 [label="gini = 0.0\nsamples = 24\nvalue = [24, 0]"] ;
441 -> 442 ;
443 [label="x[0] <= 0.52\ngini = 0.5\nsamples = 2\nvalue = [1, 1]"] ;
441 -> 443 ;
444 [label="gini = 0.0\nsamples = 1\nvalue = [1, 0]"] ;
443 -> 444 ;
445 [label="gini = 0.0\nsamples = 1\nvalue = [0, 1]"] ;
443 -> 445 ;
446 [label="x[1] <= 0.795\ngini = 0.48\nsamples = 10\nvalue = [6, 4]"] ;
440 -> 446 ;
447 [label="gini = 0.0\nsamples = 2\nvalue = [0, 2]"] ;
446 -> 447 ;
448 [label="x[3] <= 132.0\ngini = 0.375\nsamples = 8\nvalue = [6, 2]"] ;
446 -> 448 ;
449 [label="gini = 0.0\nsamples = 1\nvalue = [0, 1]"] ;
448 -> 449 ;
450 [label="x[0] <= 0.6\ngini = 0.245\nsamples = 7\nvalue = [6, 1]"] ;
448 -> 450 ;
451 [label="x[14] <= 0.5\ngini = 0.5\nsamples = 2\nvalue = [1, 1]"] ;
450 -> 451 ;
452 [label="gini = 0.0\nsamples = 1\nvalue = [0, 1]"] ;
451 -> 452 ;
453 [label="gini = 0.0\nsamples = 1\nvalue = [1, 0]"] ;
451 -> 453 ;
454 [label="gini = 0.0\nsamples = 5\nvalue = [5, 0]"] ;
450 -> 454 ;
455 [label="x[3] <= 154.5\ngini = 0.046\nsamples = 85\nvalue = [83, 2]"] ;
439 -> 455 ;
456 [label="x[3] <= 153.5\ngini = 0.147\nsamples = 25\nvalue = [23, 2]"] ;
455 -> 456 ;
457 [label="x[13] <= 0.5\ngini = 0.08\nsamples = 24\nvalue = [23, 1]"] ;
456 -> 457 ;
458 [label="gini = 0.0\nsamples = 22\nvalue = [22, 0]"] ;
457 -> 458 ;
459 [label="x[3] <= 149.0\ngini = 0.5\nsamples = 2\nvalue = [1, 1]"] ;
457 -> 459 ;
460 [label="gini = 0.0\nsamples = 1\nvalue = [1, 0]"] ;
459 -> 460 ;
461 [label="gini = 0.0\nsamples = 1\nvalue = [0, 1]"] ;
459 -> 461 ;
462 [label="gini = 0.0\nsamples = 1\nvalue = [0, 1]"] ;
456 -> 462 ;
463 [label="gini = 0.0\nsamples = 60\nvalue = [60, 0]"] ;
455 -> 463 ;
464 [label="x[0] <= 0.685\ngini = 0.48\nsamples = 5\nvalue = [2, 3]"] ;
438 -> 464 ;
465 [label="gini = 0.0\nsamples = 2\nvalue = [2, 0]"] ;
464 -> 465 ;
466 [label="gini = 0.0\nsamples = 3\nvalue = [0, 3]"] ;
464 -> 466 ;
467 [label="gini = 0.0\nsamples = 53\nvalue = [53, 0]"] ;
437 -> 467 ;
468 [label="x[3] <= 275.0\ngini = 0.26\nsamples = 13\nvalue = [11, 2]"] ;
424 -> 468 ;
469 [label="gini = 0.0\nsamples = 2\nvalue = [0, 2]"] ;
468 -> 469 ;
470 [label="gini = 0.0\nsamples = 11\nvalue = [11, 0]"] ;
468 -> 470 ;
471 [label="x[2] <= 5.5\ngini = 0.013\nsamples = 448\nvalue = [445, 3]"] ;
423 -> 471 ;
472 [label="x[3] <= 131.0\ngini = 0.005\nsamples = 423\nvalue = [422, 1]"] ;
471 -> 472 ;
473 [label="x[2] <= 4.5\ngini = 0.105\nsamples = 18\nvalue = [17, 1]"] ;
472 -> 473 ;
474 [label="gini = 0.0\nsamples = 16\nvalue = [16, 0]"] ;
473 -> 474 ;
475 [label="x[5] <= 0.5\ngini = 0.5\nsamples = 2\nvalue = [1, 1]"] ;
473 -> 475 ;
476 [label="gini = 0.0\nsamples = 1\nvalue = [1, 0]"] ;
475 -> 476 ;
477 [label="gini = 0.0\nsamples = 1\nvalue = [0, 1]"] ;
475 -> 477 ;
478 [label="gini = 0.0\nsamples = 405\nvalue = [405, 0]"] ;
472 -> 478 ;
479 [label="x[8] <= 0.5\ngini = 0.147\nsamples = 25\nvalue = [23, 2]"] ;
471 -> 479 ;
480 [label="gini = 0.0\nsamples = 20\nvalue = [20, 0]"] ;
479 -> 480 ;
481 [label="x[0] <= 0.8\ngini = 0.48\nsamples = 5\nvalue = [3, 2]"] ;
479 -> 481 ;
482 [label="gini = 0.0\nsamples = 3\nvalue = [3, 0]"] ;
481 -> 482 ;
483 [label="gini = 0.0\nsamples = 2\nvalue = [0, 2]"] ;
481 -> 483 ;
484 [label="x[1] <= 0.855\ngini = 0.191\nsamples = 56\nvalue = [50, 6]"] ;
422 -> 484 ;
485 [label="gini = 0.0\nsamples = 33\nvalue = [33, 0]"] ;
484 -> 485 ;
486 [label="x[1] <= 0.885\ngini = 0.386\nsamples = 23\nvalue = [17, 6]"] ;
484 -> 486 ;
487 [label="x[7] <= 0.5\ngini = 0.444\nsamples = 9\nvalue = [3, 6]"] ;
486 -> 487 ;
488 [label="x[2] <= 3.5\ngini = 0.375\nsamples = 4\nvalue = [3, 1]"] ;
487 -> 488 ;
489 [label="gini = 0.0\nsamples = 3\nvalue = [3, 0]"] ;
488 -> 489 ;
490 [label="gini = 0.0\nsamples = 1\nvalue = [0, 1]"] ;
488 -> 490 ;
491 [label="gini = 0.0\nsamples = 5\nvalue = [0, 5]"] ;
487 -> 491 ;
492 [label="gini = 0.0\nsamples = 14\nvalue = [14, 0]"] ;
486 -> 492 ;
493 [label="x[0] <= 0.555\ngini = 0.151\nsamples = 206\nvalue = [189, 17]"] ;
421 -> 493 ;
494 [label="x[3] <= 267.0\ngini = 0.383\nsamples = 31\nvalue = [23, 8]"] ;
493 -> 494 ;
495 [label="x[0] <= 0.505\ngini = 0.328\nsamples = 29\nvalue = [23, 6]"] ;
494 -> 495 ;
496 [label="gini = 0.0\nsamples = 14\nvalue = [14, 0]"] ;
495 -> 496 ;
497 [label="x[7] <= 0.5\ngini = 0.48\nsamples = 15\nvalue = [9, 6]"] ;
495 -> 497 ;
498 [label="gini = 0.0\nsamples = 4\nvalue = [4, 0]"] ;
497 -> 498 ;
499 [label="x[0] <= 0.515\ngini = 0.496\nsamples = 11\nvalue = [5, 6]"] ;
497 -> 499 ;
500 [label="gini = 0.0\nsamples = 3\nvalue = [0, 3]"] ;
499 -> 500 ;
501 [label="x[0] <= 0.545\ngini = 0.469\nsamples = 8\nvalue = [5, 3]"] ;
499 -> 501 ;
502 [label="gini = 0.0\nsamples = 4\nvalue = [4, 0]"] ;
501 -> 502 ;
503 [label="x[2] <= 3.5\ngini = 0.375\nsamples = 4\nvalue = [1, 3]"] ;
501 -> 503 ;
504 [label="gini = 0.0\nsamples = 3\nvalue = [0, 3]"] ;
503 -> 504 ;
505 [label="gini = 0.0\nsamples = 1\nvalue = [1, 0]"] ;
503 -> 505 ;
506 [label="gini = 0.0\nsamples = 2\nvalue = [0, 2]"] ;
494 -> 506 ;
507 [label="x[7] <= 0.5\ngini = 0.098\nsamples = 175\nvalue = [166, 9]"] ;
493 -> 507 ;
508 [label="x[3] <= 206.5\ngini = 0.193\nsamples = 83\nvalue = [74, 9]"] ;
507 -> 508 ;
509 [label="x[3] <= 204.5\ngini = 0.269\nsamples = 50\nvalue = [42, 8]"] ;
508 -> 509 ;
510 [label="x[1] <= 0.735\ngini = 0.219\nsamples = 48\nvalue = [42, 6]"] ;
509 -> 510 ;
511 [label="gini = 0.0\nsamples = 19\nvalue = [19, 0]"] ;
510 -> 511 ;
512 [label="x[1] <= 0.745\ngini = 0.328\nsamples = 29\nvalue = [23, 6]"] ;
510 -> 512 ;
513 [label="gini = 0.0\nsamples = 3\nvalue = [0, 3]"] ;
512 -> 513 ;
514 [label="x[2] <= 5.5\ngini = 0.204\nsamples = 26\nvalue = [23, 3]"] ;
512 -> 514 ;
515 [label="x[1] <= 0.925\ngini = 0.091\nsamples = 21\nvalue = [20, 1]"] ;
514 -> 515 ;
516 [label="gini = 0.0\nsamples = 16\nvalue = [16, 0]"] ;
515 -> 516 ;
517 [label="x[1] <= 0.935\ngini = 0.32\nsamples = 5\nvalue = [4, 1]"] ;
515 -> 517 ;
518 [label="gini = 0.0\nsamples = 1\nvalue = [0, 1]"] ;
517 -> 518 ;
519 [label="gini = 0.0\nsamples = 4\nvalue = [4, 0]"] ;
517 -> 519 ;
520 [label="x[1] <= 0.86\ngini = 0.48\nsamples = 5\nvalue = [3, 2]"] ;
514 -> 520 ;
521 [label="gini = 0.0\nsamples = 2\nvalue = [0, 2]"] ;
520 -> 521 ;
522 [label="gini = 0.0\nsamples = 3\nvalue = [3, 0]"] ;
520 -> 522 ;
523 [label="gini = 0.0\nsamples = 2\nvalue = [0, 2]"] ;
509 -> 523 ;
524 [label="x[2] <= 2.5\ngini = 0.059\nsamples = 33\nvalue = [32, 1]"] ;
508 -> 524 ;
525 [label="x[1] <= 0.67\ngini = 0.32\nsamples = 5\nvalue = [4, 1]"] ;
524 -> 525 ;
526 [label="gini = 0.0\nsamples = 1\nvalue = [0, 1]"] ;
525 -> 526 ;
527 [label="gini = 0.0\nsamples = 4\nvalue = [4, 0]"] ;
525 -> 527 ;
528 [label="gini = 0.0\nsamples = 28\nvalue = [28, 0]"] ;
524 -> 528 ;
529 [label="gini = 0.0\nsamples = 92\nvalue = [92, 0]"] ;
507 -> 529 ;
530 [label="gini = 0.0\nsamples = 4\nvalue = [0, 4]"] ;
234 -> 530 ;
531 [label="gini = 0.0\nsamples = 4\nvalue = [0, 4]"] ;
233 -> 531 ;
532 [label="x[1] <= 0.805\ngini = 0.496\nsamples = 1592\nvalue = [868, 724]"] ;
232 -> 532 ;
533 [label="x[3] <= 272.5\ngini = 0.073\nsamples = 610\nvalue = [587, 23]"] ;
532 -> 533 ;
534 [label="x[2] <= 6.5\ngini = 0.053\nsamples = 582\nvalue = [566, 16]"] ;
533 -> 534 ;
535 [label="x[4] <= 5.5\ngini = 0.05\nsamples = 581\nvalue = [566, 15]"] ;
534 -> 535 ;
536 [label="x[16] <= 0.5\ngini = 0.124\nsamples = 181\nvalue = [169, 12]"] ;
535 -> 536 ;
537 [label="x[12] <= 0.5\ngini = 0.065\nsamples = 148\nvalue = [143, 5]"] ;
536 -> 537 ;
538 [label="x[0] <= 0.665\ngini = 0.043\nsamples = 136\nvalue = [133, 3]"] ;
537 -> 538 ;
539 [label="gini = 0.0\nsamples = 56\nvalue = [56, 0]"] ;
538 -> 539 ;
540 [label="x[0] <= 0.685\ngini = 0.072\nsamples = 80\nvalue = [77, 3]"] ;
538 -> 540 ;
541 [label="x[3] <= 201.5\ngini = 0.375\nsamples = 8\nvalue = [6, 2]"] ;
540 -> 541 ;
542 [label="gini = 0.0\nsamples = 2\nvalue = [0, 2]"] ;
541 -> 542 ;
543 [label="gini = 0.0\nsamples = 6\nvalue = [6, 0]"] ;
541 -> 543 ;
544 [label="x[15] <= 0.5\ngini = 0.027\nsamples = 72\nvalue = [71, 1]"] ;
540 -> 544 ;
545 [label="gini = 0.0\nsamples = 51\nvalue = [51, 0]"] ;
544 -> 545 ;
546 [label="x[2] <= 4.5\ngini = 0.091\nsamples = 21\nvalue = [20, 1]"] ;
544 -> 546 ;
547 [label="gini = 0.0\nsamples = 13\nvalue = [13, 0]"] ;
546 -> 547 ;
548 [label="x[0] <= 0.82\ngini = 0.219\nsamples = 8\nvalue = [7, 1]"] ;
546 -> 548 ;
549 [label="x[3] <= 197.0\ngini = 0.5\nsamples = 2\nvalue = [1, 1]"] ;
548 -> 549 ;
550 [label="gini = 0.0\nsamples = 1\nvalue = [0, 1]"] ;
549 -> 550 ;
551 [label="gini = 0.0\nsamples = 1\nvalue = [1, 0]"] ;
549 -> 551 ;
552 [label="gini = 0.0\nsamples = 6\nvalue = [6, 0]"] ;
548 -> 552 ;
553 [label="x[3] <= 235.5\ngini = 0.278\nsamples = 12\nvalue = [10, 2]"] ;
537 -> 553 ;
554 [label="gini = 0.0\nsamples = 10\nvalue = [10, 0]"] ;
553 -> 554 ;
555 [label="gini = 0.0\nsamples = 2\nvalue = [0, 2]"] ;
553 -> 555 ;
556 [label="x[7] <= 1.5\ngini = 0.334\nsamples = 33\nvalue = [26, 7]"] ;
536 -> 556 ;
557 [label="x[7] <= 0.5\ngini = 0.133\nsamples = 28\nvalue = [26, 2]"] ;
556 -> 557 ;
558 [label="x[3] <= 166.5\ngini = 0.32\nsamples = 10\nvalue = [8, 2]"] ;
557 -> 558 ;
559 [label="x[3] <= 146.5\ngini = 0.5\nsamples = 4\nvalue = [2, 2]"] ;
558 -> 559 ;
560 [label="gini = 0.0\nsamples = 2\nvalue = [2, 0]"] ;
559 -> 560 ;
561 [label="gini = 0.0\nsamples = 2\nvalue = [0, 2]"] ;
559 -> 561 ;
562 [label="gini = 0.0\nsamples = 6\nvalue = [6, 0]"] ;
558 -> 562 ;
563 [label="gini = 0.0\nsamples = 18\nvalue = [18, 0]"] ;
557 -> 563 ;
564 [label="gini = 0.0\nsamples = 5\nvalue = [0, 5]"] ;
556 -> 564 ;
565 [label="x[15] <= 0.5\ngini = 0.015\nsamples = 400\nvalue = [397, 3]"] ;
535 -> 565 ;
566 [label="x[3] <= 132.5\ngini = 0.005\nsamples = 372\nvalue = [371, 1]"] ;
565 -> 566 ;
567 [label="x[1] <= 0.72\ngini = 0.056\nsamples = 35\nvalue = [34, 1]"] ;
566 -> 567 ;
568 [label="gini = 0.0\nsamples = 33\nvalue = [33, 0]"] ;
567 -> 568 ;
569 [label="x[1] <= 0.765\ngini = 0.5\nsamples = 2\nvalue = [1, 1]"] ;
567 -> 569 ;
570 [label="gini = 0.0\nsamples = 1\nvalue = [0, 1]"] ;
569 -> 570 ;
571 [label="gini = 0.0\nsamples = 1\nvalue = [1, 0]"] ;
569 -> 571 ;
572 [label="gini = 0.0\nsamples = 337\nvalue = [337, 0]"] ;
566 -> 572 ;
573 [label="x[0] <= 0.845\ngini = 0.133\nsamples = 28\nvalue = [26, 2]"] ;
565 -> 573 ;
574 [label="gini = 0.0\nsamples = 20\nvalue = [20, 0]"] ;
573 -> 574 ;
575 [label="x[0] <= 0.895\ngini = 0.375\nsamples = 8\nvalue = [6, 2]"] ;
573 -> 575 ;
576 [label="gini = 0.0\nsamples = 2\nvalue = [0, 2]"] ;
575 -> 576 ;
577 [label="gini = 0.0\nsamples = 6\nvalue = [6, 0]"] ;
575 -> 577 ;
578 [label="gini = 0.0\nsamples = 1\nvalue = [0, 1]"] ;
534 -> 578 ;
579 [label="x[16] <= 0.5\ngini = 0.375\nsamples = 28\nvalue = [21, 7]"] ;
533 -> 579 ;
580 [label="x[15] <= 0.5\ngini = 0.269\nsamples = 25\nvalue = [21, 4]"] ;
579 -> 580 ;
581 [label="x[10] <= 0.5\ngini = 0.159\nsamples = 23\nvalue = [21, 2]"] ;
580 -> 581 ;
582 [label="gini = 0.0\nsamples = 18\nvalue = [18, 0]"] ;
581 -> 582 ;
583 [label="x[3] <= 278.0\ngini = 0.48\nsamples = 5\nvalue = [3, 2]"] ;
581 -> 583 ;
584 [label="gini = 0.0\nsamples = 3\nvalue = [3, 0]"] ;
583 -> 584 ;
585 [label="gini = 0.0\nsamples = 2\nvalue = [0, 2]"] ;
583 -> 585 ;
586 [label="gini = 0.0\nsamples = 2\nvalue = [0, 2]"] ;
580 -> 586 ;
587 [label="gini = 0.0\nsamples = 3\nvalue = [0, 3]"] ;
579 -> 587 ;
588 [label="x[3] <= 216.5\ngini = 0.409\nsamples = 982\nvalue = [281, 701]"] ;
532 -> 588 ;
589 [label="x[1] <= 0.995\ngini = 0.098\nsamples = 174\nvalue = [165, 9]"] ;
588 -> 589 ;
590 [label="x[15] <= 0.5\ngini = 0.078\nsamples = 172\nvalue = [165, 7]"] ;
589 -> 590 ;
591 [label="x[10] <= 0.5\ngini = 0.028\nsamples = 141\nvalue = [139, 2]"] ;
590 -> 591 ;
592 [label="x[2] <= 2.5\ngini = 0.015\nsamples = 134\nvalue = [133, 1]"] ;
591 -> 592 ;
593 [label="x[1] <= 0.94\ngini = 0.18\nsamples = 10\nvalue = [9, 1]"] ;
592 -> 593 ;
594 [label="gini = 0.0\nsamples = 7\nvalue = [7, 0]"] ;
593 -> 594 ;
595 [label="x[3] <= 168.5\ngini = 0.444\nsamples = 3\nvalue = [2, 1]"] ;
593 -> 595 ;
596 [label="gini = 0.0\nsamples = 2\nvalue = [2, 0]"] ;
595 -> 596 ;
597 [label="gini = 0.0\nsamples = 1\nvalue = [0, 1]"] ;
595 -> 597 ;
598 [label="gini = 0.0\nsamples = 124\nvalue = [124, 0]"] ;
592 -> 598 ;
599 [label="x[7] <= 0.5\ngini = 0.245\nsamples = 7\nvalue = [6, 1]"] ;
591 -> 599 ;
600 [label="gini = 0.0\nsamples = 1\nvalue = [0, 1]"] ;
599 -> 600 ;
601 [label="gini = 0.0\nsamples = 6\nvalue = [6, 0]"] ;
599 -> 601 ;
602 [label="x[0] <= 0.555\ngini = 0.271\nsamples = 31\nvalue = [26, 5]"] ;
590 -> 602 ;
603 [label="x[3] <= 175.0\ngini = 0.48\nsamples = 5\nvalue = [2, 3]"] ;
602 -> 603 ;
604 [label="gini = 0.0\nsamples = 3\nvalue = [0, 3]"] ;
603 -> 604 ;
605 [label="gini = 0.0\nsamples = 2\nvalue = [2, 0]"] ;
603 -> 605 ;
606 [label="x[4] <= 5.5\ngini = 0.142\nsamples = 26\nvalue = [24, 2]"] ;
602 -> 606 ;
607 [label="x[3] <= 163.0\ngini = 0.408\nsamples = 7\nvalue = [5, 2]"] ;
606 -> 607 ;
608 [label="gini = 0.0\nsamples = 4\nvalue = [4, 0]"] ;
607 -> 608 ;
609 [label="x[7] <= 0.5\ngini = 0.444\nsamples = 3\nvalue = [1, 2]"] ;
607 -> 609 ;
610 [label="gini = 0.0\nsamples = 2\nvalue = [0, 2]"] ;
609 -> 610 ;
611 [label="gini = 0.0\nsamples = 1\nvalue = [1, 0]"] ;
609 -> 611 ;
612 [label="gini = 0.0\nsamples = 19\nvalue = [19, 0]"] ;
606 -> 612 ;
613 [label="gini = 0.0\nsamples = 2\nvalue = [0, 2]"] ;
589 -> 613 ;
614 [label="x[4] <= 6.5\ngini = 0.246\nsamples = 808\nvalue = [116, 692]"] ;
588 -> 614 ;
615 [label="x[0] <= 0.715\ngini = 0.149\nsamples = 753\nvalue = [61, 692]"] ;
614 -> 615 ;
616 [label="x[1] <= 0.915\ngini = 0.313\nsamples = 36\nvalue = [29, 7]"] ;
615 -> 616 ;
617 [label="gini = 0.0\nsamples = 22\nvalue = [22, 0]"] ;
616 -> 617 ;
618 [label="x[1] <= 0.94\ngini = 0.5\nsamples = 14\nvalue = [7, 7]"] ;
616 -> 618 ;
619 [label="x[0] <= 0.685\ngini = 0.278\nsamples = 6\nvalue = [1, 5]"] ;
618 -> 619 ;
620 [label="gini = 0.0\nsamples = 5\nvalue = [0, 5]"] ;
619 -> 620 ;
621 [label="gini = 0.0\nsamples = 1\nvalue = [1, 0]"] ;
619 -> 621 ;
622 [label="x[3] <= 265.5\ngini = 0.375\nsamples = 8\nvalue = [6, 2]"] ;
618 -> 622 ;
623 [label="gini = 0.0\nsamples = 6\nvalue = [6, 0]"] ;
622 -> 623 ;
624 [label="gini = 0.0\nsamples = 2\nvalue = [0, 2]"] ;
622 -> 624 ;
625 [label="x[2] <= 3.5\ngini = 0.085\nsamples = 717\nvalue = [32, 685]"] ;
615 -> 625 ;
626 [label="x[3] <= 296.5\ngini = 0.111\nsamples = 17\nvalue = [16, 1]"] ;
625 -> 626 ;
627 [label="gini = 0.0\nsamples = 16\nvalue = [16, 0]"] ;
626 -> 627 ;
628 [label="gini = 0.0\nsamples = 1\nvalue = [0, 1]"] ;
626 -> 628 ;
629 [label="x[2] <= 5.5\ngini = 0.045\nsamples = 700\nvalue = [16, 684]"] ;
625 -> 629 ;
630 [label="x[0] <= 0.925\ngini = 0.028\nsamples = 694\nvalue = [10, 684]"] ;
629 -> 630 ;
631 [label="x[3] <= 223.5\ngini = 0.023\nsamples = 692\nvalue = [8, 684]"] ;
630 -> 631 ;
632 [label="x[1] <= 0.88\ngini = 0.083\nsamples = 69\nvalue = [3, 66]"] ;
631 -> 632 ;
633 [label="x[1] <= 0.865\ngini = 0.245\nsamples = 21\nvalue = [3, 18]"] ;
632 -> 633 ;
634 [label="x[0] <= 0.775\ngini = 0.111\nsamples = 17\nvalue = [1, 16]"] ;
633 -> 634 ;
635 [label="x[7] <= 0.5\ngini = 0.444\nsamples = 3\nvalue = [1, 2]"] ;
634 -> 635 ;
636 [label="gini = 0.0\nsamples = 1\nvalue = [1, 0]"] ;
635 -> 636 ;
637 [label="gini = 0.0\nsamples = 2\nvalue = [0, 2]"] ;
635 -> 637 ;
638 [label="gini = 0.0\nsamples = 14\nvalue = [0, 14]"] ;
634 -> 638 ;
639 [label="x[2] <= 4.5\ngini = 0.5\nsamples = 4\nvalue = [2, 2]"] ;
633 -> 639 ;
640 [label="gini = 0.0\nsamples = 2\nvalue = [2, 0]"] ;
639 -> 640 ;
641 [label="gini = 0.0\nsamples = 2\nvalue = [0, 2]"] ;
639 -> 641 ;
642 [label="gini = 0.0\nsamples = 48\nvalue = [0, 48]"] ;
632 -> 642 ;
643 [label="x[5] <= 0.5\ngini = 0.016\nsamples = 623\nvalue = [5, 618]"] ;
631 -> 643 ;
644 [label="x[11] <= 0.5\ngini = 0.01\nsamples = 593\nvalue = [3, 590]"] ;
643 -> 644 ;
645 [label="x[1] <= 0.835\ngini = 0.007\nsamples = 576\nvalue = [2, 574]"] ;
644 -> 645 ;
646 [label="x[0] <= 0.735\ngini = 0.056\nsamples = 35\nvalue = [1, 34]"] ;
645 -> 646 ;
647 [label="gini = 0.0\nsamples = 1\nvalue = [1, 0]"] ;
646 -> 647 ;
648 [label="gini = 0.0\nsamples = 34\nvalue = [0, 34]"] ;
646 -> 648 ;
649 [label="x[4] <= 5.5\ngini = 0.004\nsamples = 541\nvalue = [1, 540]"] ;
645 -> 649 ;
650 [label="gini = 0.0\nsamples = 433\nvalue = [0, 433]"] ;
649 -> 650 ;
651 [label="x[7] <= 0.5\ngini = 0.018\nsamples = 108\nvalue = [1, 107]"] ;
649 -> 651 ;
652 [label="gini = 0.0\nsamples = 76\nvalue = [0, 76]"] ;
651 -> 652 ;
653 [label="x[3] <= 244.0\ngini = 0.061\nsamples = 32\nvalue = [1, 31]"] ;
651 -> 653 ;
654 [label="x[3] <= 237.5\ngini = 0.198\nsamples = 9\nvalue = [1, 8]"] ;
653 -> 654 ;
655 [label="gini = 0.0\nsamples = 6\nvalue = [0, 6]"] ;
654 -> 655 ;
656 [label="x[0] <= 0.78\ngini = 0.444\nsamples = 3\nvalue = [1, 2]"] ;
654 -> 656 ;
657 [label="gini = 0.0\nsamples = 2\nvalue = [0, 2]"] ;
656 -> 657 ;
658 [label="gini = 0.0\nsamples = 1\nvalue = [1, 0]"] ;
656 -> 658 ;
659 [label="gini = 0.0\nsamples = 23\nvalue = [0, 23]"] ;
653 -> 659 ;
660 [label="x[0] <= 0.89\ngini = 0.111\nsamples = 17\nvalue = [1, 16]"] ;
644 -> 660 ;
661 [label="gini = 0.0\nsamples = 16\nvalue = [0, 16]"] ;
660 -> 661 ;
662 [label="gini = 0.0\nsamples = 1\nvalue = [1, 0]"] ;
660 -> 662 ;
663 [label="x[1] <= 0.965\ngini = 0.124\nsamples = 30\nvalue = [2, 28]"] ;
643 -> 663 ;
664 [label="gini = 0.0\nsamples = 21\nvalue = [0, 21]"] ;
663 -> 664 ;
665 [label="x[15] <= 0.5\ngini = 0.346\nsamples = 9\nvalue = [2, 7]"] ;
663 -> 665 ;
666 [label="x[7] <= 0.5\ngini = 0.219\nsamples = 8\nvalue = [1, 7]"] ;
665 -> 666 ;
667 [label="x[8] <= 0.5\ngini = 0.5\nsamples = 2\nvalue = [1, 1]"] ;
666 -> 667 ;
668 [label="gini = 0.0\nsamples = 1\nvalue = [1, 0]"] ;
667 -> 668 ;
669 [label="gini = 0.0\nsamples = 1\nvalue = [0, 1]"] ;
667 -> 669 ;
670 [label="gini = 0.0\nsamples = 6\nvalue = [0, 6]"] ;
666 -> 670 ;
671 [label="gini = 0.0\nsamples = 1\nvalue = [1, 0]"] ;
665 -> 671 ;
672 [label="gini = 0.0\nsamples = 2\nvalue = [2, 0]"] ;
630 -> 672 ;
673 [label="gini = 0.0\nsamples = 6\nvalue = [6, 0]"] ;
629 -> 673 ;
674 [label="gini = 0.0\nsamples = 55\nvalue = [55, 0]"] ;
614 -> 674 ;
}